{
  "layers": [
    {
      "activation": 1,
      "biases": [
        -22.565117662157036,
        5.613849853764906,
        -3.211681888906528,
        -7.785407539039603,
        -26.679038438869696,
        8.768817912718523,
        -7.615094009417002
      ],
      "cols": 7,
      "rows": 2,
      "weights": [
        [
          25.225668477175354,
          -10.046847874340509,
          14.400713191632088,
          0.8509982027590594,
          26.480371504040722,
          -12.150977597773183,
          15.577784967545288
        ],
        [
          9.599855925786901,
          3.9648958455207737,
          6.516728087624329,
          14.246790127633211,
          28.782090710297144,
          -13.781196416196707,
          -16.87330097161014
        ]
      ]
    },
    {
      "activation": 1,
      "biases": [
        -6.496526484346862,
        11.638648197217513,
        -7.512427937247212,
        -1.7241896207746843,
        5.2011808132485475,
        0.9349045899335066,
        -0.1393803142133094,
        -3.8047676330966222,
        -5.991705046278731,
        -10.428873099659338
      ],
      "cols": 10,
      "rows": 7,
      "weights": [
        [
          1.7183850061951385,
          -6.919282412170878,
          -14.988490081833485,
          -5.391757604473054,
          -3.427648623498366,
          -10.507631711319858,
          -2.6984212208006486,
          2.0517223244129923,
          2.442357985542551,
          -2.966569372830624
        ],
        [
          5.835420597470353,
          -10.684111041164734,
          7.135492981837758,
          -6.943423751496953,
          -3.440019004183732,
          -3.5506164781702596,
          -1.9975504580134729,
          6.407232822670412,
          5.408320945259409,
          -3.694918807458405
        ],
        [
          -0.5760014644092052,
          10.030203042264027,
          -1.6645008711091116,
          5.666892413723311,
          -4.451938312038743,
          -2.0943015540979726,
          -0.2374039533481612,
          -3.550283587541575,
          4.60015730145106,
          5.62544500181748
        ],
        [
          -4.513209848670711,
          -1.501223562973696,
          8.17222518038187,
          -4.609571926934339,
          6.944400049812894,
          5.134756003966778,
          1.9273626121220129,
          6.5093243406098935,
          -10.772002256292737,
          -4.796089862931687
        ],
        [
          7.0362689505260265,
          -8.702898144469824,
          13.862380605909317,
          10.211366896811027,
          -2.082382878997556,
          8.771479022015948,
          2.0948591922917763,
          -4.549005976387607,
          6.661990170660897,
          13.628190680182426
        ],
        [
          3.1680206832340687,
          -11.494896950391578,
          0.4598459879845686,
          8.600065177300527,
          -0.7248555976904646,
          3.2511328297834443,
          2.370568264889054,
          -2.4386131055980624,
          0.2543817471743803,
          13.729982464190156
        ],
        [
          -2.457153851281791,
          -13.229619573529517,
          11.409294880924678,
          -22.348181024833895,
          6.761278360290465,
          2.7467411691513504,
          0.08087642895884688,
          18.065124523647214,
          -5.91098209399176,
          -12.675614162131845
        ]
      ]
    }
  ]
}
