{
  "layers": [
    {
      "activation": 1,
      "biases": [
        1.531935142288493,
        -14.319338552661113,
        12.738689272287944,
        35.13885949030757,
        -32.898879031582155,
        13.579690996627354,
        -9.093548442121872
      ],
      "cols": 7,
      "rows": 2,
      "weights": [
        [
          4.717449337301683,
          24.429702185360615,
          -25.515084791020136,
          -39.73850028008213,
          26.43897081415765,
          -0.10512774334909471,
          5.433156594754482
        ],
        [
          -19.75836028985164,
          -22.689234763557263,
          -15.551331872533021,
          -18.90973098444583,
          34.57851045146632,
          -15.289067705937466,
          15.365926989494305
        ]
      ]
    },
    {
      "activation": 1,
      "biases": [
        1.904179700997815,
        7.816142149158663,
        17.557002553874813,
        -8.721436664992314,
        -19.510525782768635,
        -7.573372853128612,
        -6.4249042243672525,
        3.3998576826461115,
        5.263582803640115,
        -15.034479753139362
      ],
      "cols": 10,
      "rows": 7,
      "weights": [
        [
          -4.801648860153148,
          -10.34808111656898,
          5.970773366970244,
          5.333557124780083,
          8.774619694933635,
          7.983027591050266,
          3.84118146533766,
          1.892409765490105,
          0.2197621709795731,
          10.066191460618132
        ],
        [
          -2.4217549227362074,
          -10.317787792494846,
          6.857641906185981,
          -27.84087418809159,
          2.9418661007225575,
          0.27612181144382164,
          -0.297351428915696,
          23.625290241260053,
          2.524828411110725,
          -7.7202400403695295
        ],
        [
          1.4395159059049862,
          -18.30278206145138,
          2.795744664421222,
          0.913793021843974,
          0.6881013249565741,
          2.2222426116263856,
          1.5520747286012964,
          1.101001551103844,
          -1.3719152337620337,
          -0.33116178288640513
        ],
        [
          6.409362886856626,
          -2.746183397420783,
          -7.333777757699839,
          -2.9927491945309934,
          9.956089029844179,
          -3.2211378444943235,
          0.6073594877025711,
          10.35806850232966,
          -1.9457403149364827,
          4.729599852579032
        ],
        [
          21.465687700993353,
          -19.688432867717317,
          -24.956074711698115,
          -8.453903877454513,
          -5.517210297009874,
          -16.08385217241272,
          -5.790646253536843,
          2.8171004410454183,
          -4.369348792645303,
          14.605074042504212
        ],
        [
          -4.416701485405114,
          11.501403997960054,
          -17.801644074184857,
          6.76807048291357,
          2.196866865357408,
          2.4154241563709364,
          1.4374608163676283,
          -16.19692454299183,
          -2.800012730703136,
          2.1964949235876006
        ],
        [
          -19.775946951478584,
          2.32661978962289,
          22.64864411710319,
          13.791632040624851,
          23.837399806032778,
          22.58747611679027,
          11.215344371497828,
          6.2816042912236565,
          1.4621542376805052,
          -2.1420651967437916
        ]
      ]
    }
  ]
}
