{
  "layers": [
    {
      "activation": 1,
      "biases": [
        -12.093534755454735,
        0.3980327617556099,
        3.210131963819427,
        -15.784723245519881,
        11.71217945049151,
        -0.36382223919679885,
        -0.28837372195483757
      ],
      "cols": 7,
      "rows": 2,
      "weights": [
        [
          16.213714821165922,
          8.995968964881133,
          10.648480057817428,
          16.318743234086725,
          -10.656111637854938,
          2.001823669361369,
          19.444942052819176
        ],
        [
          -6.471239763808215,
          -15.46198863565327,
          -14.638306999239765,
          13.263553224875714,
          -2.5262091475858792,
          -13.338181586518418,
          -0.3003152823965979
        ]
      ]
    },
    {
      "activation": 1,
      "biases": [
        -0.7910647806607012,
        4.447739721362341,
        2.2023247296701665,
        4.397270313616898,
        0.26108380018519983,
        -2.7083515607700503,
        -4.094868392792448,
        -5.102703262409862,
        -4.934099256160756,
        -0.005140578776939466
      ],
      "cols": 10,
      "rows": 7,
      "weights": [
        [
          2.0448126341976853,
          -6.170026556722526,
          -4.2252718593734695,
          -12.54538255665616,
          -18.149775392605328,
          4.985157038444608,
          -0.7211452612312709,
          -2.1274082836030246,
          -2.7042328235817563,
          2.4661651209668523
        ],
        [
          -0.6332500492289201,
          4.131337091605107,
          4.150952779858247,
          3.5034128521665564,
          2.7623505829275175,
          -3.6539011577136544,
          0.4728544792812597,
          8.974118044812215,
          8.049003940356704,
          -10.73126063941778
        ],
        [
          -2.2013657449934163,
          -1.1675721207232115,
          -2.0370429312418965,
          -0.710555418715558,
          0.17115594253429506,
          0.6941644568329879,
          0.5902737704703026,
          -8.6419548143481,
          -10.480285216971458,
          1.0326904085231434
        ],
        [
          -2.337618771591222,
          2.0639304563599223,
          1.1589273982497152,
          -0.4236688317747854,
          0.18930299505111564,
          0.08580051056142975,
          -1.7572298238594728,
          -1.493658398992975,
          -3.310133857970005,
          -6.779769001785312
        ],
        [
          2.5098987774135577,
          -2.772488071218254,
          -2.344844086531476,
          -5.726851827575736,
          -2.0746616084234657,
          2.189997894137274,
          1.0925926012198657,
          2.250393131493015,
          1.5936307749707046,
          -3.2495738000882155
        ],
        [
          -1.572663224172739,
          -0.1250434959216397,
          -1.0372127776811009,
          -1.478490335044223,
          -0.5252870792277772,
          6.057570758560646,
          -1.397353208833345,
          -0.281817146578416,
          2.0551981361602816,
          6.721198767658277
        ],
        [
          2.535967373775387,
          -4.690736694514169,
          -1.0024401611616405,
          0.7278044793377126,
          1.2925823631474735,
          0.3289505128662138,
          3.679752837491572,
          4.743937517533989,
          7.294002488370887,
          8.217259724467898
        ]
      ]
    }
  ]
}
